{"sizes":[13,6,1],"layers":[{"winLose":{},"step":{},"p4_pf_1":{},"p3_pf_1":{},"handValue":{},"p1_pf_1":{},"p2_pf_1":{},"p3_pf_2":{},"p1_t_1":{},"p2_r_1":{},"p4_f_1":{},"p3_r_1":{},"p4_r_1":{}},{"0":{"bias":0.06465267390012741,"weights":{"winLose":0.02711348980665207,"step":-0.01938321813941002,"p4_pf_1":0.022404484450817108,"p3_pf_1":-0.019058316946029663,"handValue":-0.4420463442802429,"p1_pf_1":0.2855970859527588,"p2_pf_1":-0.05613233521580696,"p3_pf_2":0.05635209009051323,"p1_t_1":0.13672642409801483,"p2_r_1":-0.04343561828136444,"p4_f_1":0.12261716276407242,"p3_r_1":0.5303916335105896,"p4_r_1":-0.35477688908576965}},"1":{"bias":-0.22206591069698334,"weights":{"winLose":0.08550728857517242,"step":0.13956020772457123,"p4_pf_1":-0.3119814991950989,"p3_pf_1":-0.2820659279823303,"handValue":-0.10492880642414093,"p1_pf_1":0.07794701308012009,"p2_pf_1":0.6767720580101013,"p3_pf_2":0.4613747000694275,"p1_t_1":-0.08682818710803986,"p2_r_1":0.37536975741386414,"p4_f_1":-0.3273145854473114,"p3_r_1":-0.9727272391319275,"p4_r_1":0.8071001768112183}},"2":{"bias":-0.05451489984989166,"weights":{"winLose":-0.16349294781684875,"step":-0.1966889649629593,"p4_pf_1":-0.20748944580554962,"p3_pf_1":0.002717246301472187,"handValue":-0.48639294505119324,"p1_pf_1":0.10194992274045944,"p2_pf_1":0.36660081148147583,"p3_pf_2":0.6504902839660645,"p1_t_1":-0.1351260095834732,"p2_r_1":0.16547106206417084,"p4_f_1":-0.13225288689136505,"p3_r_1":-1.2222871780395508,"p4_r_1":1.2306348085403442}},"3":{"bias":0.05332069844007492,"weights":{"winLose":-0.19538076221942902,"step":-0.09679348021745682,"p4_pf_1":0.053267769515514374,"p3_pf_1":0.11990735679864883,"handValue":-0.23538410663604736,"p1_pf_1":0.021405333653092384,"p2_pf_1":0.12638475000858307,"p3_pf_2":0.02090645581483841,"p1_t_1":-0.055893003940582275,"p2_r_1":0.20530076324939728,"p4_f_1":-0.06850139051675797,"p3_r_1":-0.08639895170927048,"p4_r_1":0.14899785816669464}},"4":{"bias":-0.11705909669399261,"weights":{"winLose":-0.2943553328514099,"step":0.2927522659301758,"p4_pf_1":-0.1194206178188324,"p3_pf_1":-0.28719696402549744,"handValue":-0.8352091908454895,"p1_pf_1":0.049464792013168335,"p2_pf_1":1.15657639503479,"p3_pf_2":1.3305063247680664,"p1_t_1":-0.10154135525226593,"p2_r_1":0.41153448820114136,"p4_f_1":-0.5630453824996948,"p3_r_1":-2.676093101501465,"p4_r_1":2.8271608352661133}},"5":{"bias":0.19493944942951202,"weights":{"winLose":0.04458155483007431,"step":0.07374654710292816,"p4_pf_1":0.10540401935577393,"p3_pf_1":-0.06598365306854248,"handValue":-0.5973520278930664,"p1_pf_1":0.1396690011024475,"p2_pf_1":-0.3339940011501312,"p3_pf_2":-0.18074868619441986,"p1_t_1":-0.07085768133401871,"p2_r_1":-0.37662962079048157,"p4_f_1":0.145665243268013,"p3_r_1":0.6756045818328857,"p4_r_1":-0.549385130405426}}},{"chips":{"bias":0.4651322364807129,"weights":{"0":0.94399094581604,"1":-1.2617719173431396,"2":-1.4893120527267456,"3":0.09157414734363556,"4":-4.035931587219238,"5":1.401564121246338}}}],"outputLookup":true,"inputLookup":true,"activation":"sigmoid","trainOpts":{"iterations":20000,"errorThresh":0.005,"log":true,"logPeriod":10,"learningRate":0.3,"momentum":0.1,"callbackPeriod":10}}