{"sizes":[29,14,7,3,1],"layers":[{"Win":{},"Lose":{},"myCurrBet":{},"step":{},"position":{},"bluff":{},"maxHandsRatio":{},"handValue":{},"percentRaise_2":{},"percentCheck_2":{},"percentFold_2":{},"percentBets_2":{},"percentRaise_3":{},"percentCheck_3":{},"percentFold_3":{},"percentBets_3":{},"percentRaise_4":{},"percentCheck_4":{},"percentFold_4":{},"percentBets_4":{},"myChipsRatio":{},"totalChipsRatio_2":{},"totalChipsRatio_3":{},"totalChipsRatio_4":{},"percentBets_1":{},"totalChipsRatio_1":{},"percentRaise_1":{},"percentCheck_1":{},"percentFold_1":{}},{"0":{"bias":-1.2150570154190063,"weights":{"Win":7.528254985809326,"Lose":2.646272897720337,"myCurrBet":4.412761211395264,"step":4.931328296661377,"position":-5.2413129806518555,"bluff":-11.466176986694336,"maxHandsRatio":-1.4991451501846313,"handValue":-7.560927867889404,"percentRaise_2":3.9334042072296143,"percentCheck_2":-4.962093353271484,"percentFold_2":-5.2592244148254395,"percentBets_2":9.233701705932617,"percentRaise_3":12.238186836242676,"percentCheck_3":-0.16101761162281036,"percentFold_3":-1.5325806140899658,"percentBets_3":7.088631629943848,"percentRaise_4":14.10789966583252,"percentCheck_4":5.389064788818359,"percentFold_4":-0.18694651126861572,"percentBets_4":-13.902668952941895,"myChipsRatio":0.7275720238685608,"totalChipsRatio_2":-3.644517421722412,"totalChipsRatio_3":1.618131399154663,"totalChipsRatio_4":-2.5132434368133545,"percentBets_1":-0.7222411036491394,"totalChipsRatio_1":2.831376552581787,"percentRaise_1":2.727304458618164,"percentCheck_1":-2.7847952842712402,"percentFold_1":-11.79382038116455}},"1":{"bias":-1.458831787109375,"weights":{"Win":9.544933319091797,"Lose":5.517956733703613,"myCurrBet":-7.39202880859375,"step":-2.0900309085845947,"position":-7.223549842834473,"bluff":4.499001979827881,"maxHandsRatio":17.770977020263672,"handValue":-6.071804046630859,"percentRaise_2":-5.489534378051758,"percentCheck_2":0.4090268611907959,"percentFold_2":4.734062671661377,"percentBets_2":-3.208066701889038,"percentRaise_3":-3.2248170375823975,"percentCheck_3":-0.009759584441781044,"percentFold_3":1.8440159559249878,"percentBets_3":-1.0746324062347412,"percentRaise_4":-5.172544479370117,"percentCheck_4":5.70768928527832,"percentFold_4":4.573302745819092,"percentBets_4":2.897167682647705,"myChipsRatio":5.412858963012695,"totalChipsRatio_2":-5.62458610534668,"totalChipsRatio_3":7.9068989753723145,"totalChipsRatio_4":0.22431088984012604,"percentBets_1":-9.638229370117188,"totalChipsRatio_1":-9.773961067199707,"percentRaise_1":-4.014248371124268,"percentCheck_1":-3.358731269836426,"percentFold_1":-1.369493007659912}},"2":{"bias":-1.060662031173706,"weights":{"Win":1.110119104385376,"Lose":-5.314367771148682,"myCurrBet":-4.6661295890808105,"step":18.270414352416992,"position":-3.7306175231933594,"bluff":-5.322071075439453,"maxHandsRatio":-10.049452781677246,"handValue":7.357363224029541,"percentRaise_2":-12.420377731323242,"percentCheck_2":-1.9263744354248047,"percentFold_2":17.92388916015625,"percentBets_2":1.803650975227356,"percentRaise_3":-2.1373403072357178,"percentCheck_3":1.5949329137802124,"percentFold_3":-1.00437331199646,"percentBets_3":3.957796335220337,"percentRaise_4":1.6857945919036865,"percentCheck_4":8.270309448242188,"percentFold_4":3.637216329574585,"percentBets_4":0.8306862115859985,"myChipsRatio":-4.463071823120117,"totalChipsRatio_2":-1.6223523616790771,"totalChipsRatio_3":3.6350038051605225,"totalChipsRatio_4":-0.6185300946235657,"percentBets_1":0.26458069682121277,"totalChipsRatio_1":2.0147578716278076,"percentRaise_1":-4.433279991149902,"percentCheck_1":10.196096420288086,"percentFold_1":-1.9605786800384521}},"3":{"bias":-5.091244697570801,"weights":{"Win":0.96355140209198,"Lose":-12.494808197021484,"myCurrBet":0.5192574858665466,"step":15.331766128540039,"position":-2.157670736312866,"bluff":2.2307286262512207,"maxHandsRatio":-5.533878803253174,"handValue":2.868943452835083,"percentRaise_2":-10.304320335388184,"percentCheck_2":-7.493146896362305,"percentFold_2":-7.491799354553223,"percentBets_2":6.460233688354492,"percentRaise_3":-1.4267808198928833,"percentCheck_3":-2.0072195529937744,"percentFold_3":0.4694775938987732,"percentBets_3":-2.6357762813568115,"percentRaise_4":-0.3566156029701233,"percentCheck_4":8.516292572021484,"percentFold_4":-9.695152282714844,"percentBets_4":3.986177682876587,"myChipsRatio":5.488379955291748,"totalChipsRatio_2":-3.130312919616699,"totalChipsRatio_3":-7.1810407638549805,"totalChipsRatio_4":-0.20934177935123444,"percentBets_1":-4.248564720153809,"totalChipsRatio_1":-0.5643238425254822,"percentRaise_1":-4.337906837463379,"percentCheck_1":-5.4995198249816895,"percentFold_1":7.011409282684326}},"4":{"bias":-4.007348537445068,"weights":{"Win":1.6979291439056396,"Lose":9.213221549987793,"myCurrBet":-0.52211594581604,"step":4.883667945861816,"position":-6.159895420074463,"bluff":8.843070983886719,"maxHandsRatio":4.947367191314697,"handValue":0.9215279817581177,"percentRaise_2":-3.5696606636047363,"percentCheck_2":-5.368919372558594,"percentFold_2":1.5437694787979126,"percentBets_2":-2.3921115398406982,"percentRaise_3":6.95108699798584,"percentCheck_3":-2.5850489139556885,"percentFold_3":1.8563040494918823,"percentBets_3":2.071542978286743,"percentRaise_4":6.567949295043945,"percentCheck_4":4.893489837646484,"percentFold_4":6.764317035675049,"percentBets_4":-8.883262634277344,"myChipsRatio":5.238645076751709,"totalChipsRatio_2":6.819360733032227,"totalChipsRatio_3":-8.685044288635254,"totalChipsRatio_4":-2.167037010192871,"percentBets_1":0.566117525100708,"totalChipsRatio_1":-5.310999393463135,"percentRaise_1":6.785003662109375,"percentCheck_1":8.474471092224121,"percentFold_1":1.7726165056228638}},"5":{"bias":-0.7550113201141357,"weights":{"Win":5.14786958694458,"Lose":-0.260832816362381,"myCurrBet":-6.14508581161499,"step":-23.501224517822266,"position":2.9506425857543945,"bluff":-7.006824970245361,"maxHandsRatio":5.716823101043701,"handValue":-6.050665855407715,"percentRaise_2":1.0922735929489136,"percentCheck_2":-4.777741432189941,"percentFold_2":4.4567694664001465,"percentBets_2":-4.960866451263428,"percentRaise_3":0.4385764002799988,"percentCheck_3":0.3453002870082855,"percentFold_3":0.31925445795059204,"percentBets_3":3.2545056343078613,"percentRaise_4":1.3886046409606934,"percentCheck_4":6.344151020050049,"percentFold_4":-4.071290969848633,"percentBets_4":5.047348976135254,"myChipsRatio":0.8439043760299683,"totalChipsRatio_2":-1.158962368965149,"totalChipsRatio_3":2.32582950592041,"totalChipsRatio_4":-2.935274362564087,"percentBets_1":-1.5117942094802856,"totalChipsRatio_1":0.33842989802360535,"percentRaise_1":-0.17554499208927155,"percentCheck_1":0.47140973806381226,"percentFold_1":-6.255924224853516}},"6":{"bias":1.8969871997833252,"weights":{"Win":-88.36318969726562,"Lose":-28.314437866210938,"myCurrBet":21.720163345336914,"step":1.387585997581482,"position":-3.4069571495056152,"bluff":-5.315184116363525,"maxHandsRatio":2.021608829498291,"handValue":-2.6459012031555176,"percentRaise_2":-2.650242328643799,"percentCheck_2":-6.1553635597229,"percentFold_2":4.033663272857666,"percentBets_2":-2.223886489868164,"percentRaise_3":-2.682955503463745,"percentCheck_3":0.6835908889770508,"percentFold_3":4.2702226638793945,"percentBets_3":7.079443454742432,"percentRaise_4":0.741148829460144,"percentCheck_4":2.540470600128174,"percentFold_4":-0.8229767680168152,"percentBets_4":-5.50523042678833,"myChipsRatio":0.6450903415679932,"totalChipsRatio_2":1.962660312652588,"totalChipsRatio_3":3.309521436691284,"totalChipsRatio_4":-6.364826679229736,"percentBets_1":2.0914413928985596,"totalChipsRatio_1":2.5185816287994385,"percentRaise_1":5.62076997756958,"percentCheck_1":-3.3853063583374023,"percentFold_1":3.591165065765381}},"7":{"bias":-5.502888202667236,"weights":{"Win":4.764633655548096,"Lose":0.829866349697113,"myCurrBet":-2.563505172729492,"step":-2.0991008281707764,"position":-10.822535514831543,"bluff":-6.247281551361084,"maxHandsRatio":-0.023176971822977066,"handValue":7.448536396026611,"percentRaise_2":1.0199933052062988,"percentCheck_2":-1.2949645519256592,"percentFold_2":-0.8168649077415466,"percentBets_2":-4.9627366065979,"percentRaise_3":1.9188039302825928,"percentCheck_3":8.454651832580566,"percentFold_3":-4.284213542938232,"percentBets_3":8.008981704711914,"percentRaise_4":-5.5037150382995605,"percentCheck_4":-6.000668525695801,"percentFold_4":-3.5471086502075195,"percentBets_4":-1.7737925052642822,"myChipsRatio":5.956987380981445,"totalChipsRatio_2":1.083938717842102,"totalChipsRatio_3":5.2353668212890625,"totalChipsRatio_4":-13.926578521728516,"percentBets_1":-2.0918567180633545,"totalChipsRatio_1":-4.256634712219238,"percentRaise_1":-2.1251254081726074,"percentCheck_1":-0.4120306968688965,"percentFold_1":-3.535114288330078}},"8":{"bias":1.838362693786621,"weights":{"Win":9.509705543518066,"Lose":15.984628677368164,"myCurrBet":-1.1428543329238892,"step":-6.1075119972229,"position":-4.907264232635498,"bluff":4.6610798835754395,"maxHandsRatio":-9.76183032989502,"handValue":8.012519836425781,"percentRaise_2":-3.423391103744507,"percentCheck_2":-2.9411168098449707,"percentFold_2":4.831811904907227,"percentBets_2":-4.869522571563721,"percentRaise_3":3.0831215381622314,"percentCheck_3":-2.418506145477295,"percentFold_3":2.6886630058288574,"percentBets_3":2.0150649547576904,"percentRaise_4":-1.0367392301559448,"percentCheck_4":-4.443045139312744,"percentFold_4":3.2217962741851807,"percentBets_4":2.0712978839874268,"myChipsRatio":1.6632847785949707,"totalChipsRatio_2":-1.401821494102478,"totalChipsRatio_3":-5.166726112365723,"totalChipsRatio_4":1.7543530464172363,"percentBets_1":3.795990467071533,"totalChipsRatio_1":5.159441947937012,"percentRaise_1":-0.07568781822919846,"percentCheck_1":-2.6163694858551025,"percentFold_1":1.1415326595306396}},"9":{"bias":-1.826361894607544,"weights":{"Win":-25.286670684814453,"Lose":-9.640665054321289,"myCurrBet":7.787972450256348,"step":-8.42185115814209,"position":2.69283390045166,"bluff":-2.368311643600464,"maxHandsRatio":-19.367286682128906,"handValue":6.0184221267700195,"percentRaise_2":4.2342305183410645,"percentCheck_2":-4.805426120758057,"percentFold_2":2.528229236602783,"percentBets_2":13.24317741394043,"percentRaise_3":-4.442458629608154,"percentCheck_3":-5.882881164550781,"percentFold_3":2.563481569290161,"percentBets_3":0.6711073517799377,"percentRaise_4":8.592561721801758,"percentCheck_4":3.3528316020965576,"percentFold_4":-5.485843658447266,"percentBets_4":3.4528985023498535,"myChipsRatio":2.726315975189209,"totalChipsRatio_2":2.420687675476074,"totalChipsRatio_3":8.057649612426758,"totalChipsRatio_4":-1.0391794443130493,"percentBets_1":-3.847374200820923,"totalChipsRatio_1":-13.82265567779541,"percentRaise_1":-1.145947813987732,"percentCheck_1":-3.6726510524749756,"percentFold_1":-4.5374650955200195}},"10":{"bias":-2.6223061084747314,"weights":{"Win":3.0212090015411377,"Lose":8.498696327209473,"myCurrBet":2.9629623889923096,"step":9.204377174377441,"position":-2.331092119216919,"bluff":-4.900365829467773,"maxHandsRatio":-0.4536701440811157,"handValue":-12.46181583404541,"percentRaise_2":-2.0181150436401367,"percentCheck_2":-4.079598903656006,"percentFold_2":-3.4480252265930176,"percentBets_2":-3.4037959575653076,"percentRaise_3":-5.152921676635742,"percentCheck_3":-5.106819152832031,"percentFold_3":-4.167907238006592,"percentBets_3":1.0814129114151,"percentRaise_4":-8.703882217407227,"percentCheck_4":-0.18492747843265533,"percentFold_4":-5.835151672363281,"percentBets_4":-1.2928097248077393,"myChipsRatio":-1.6668418645858765,"totalChipsRatio_2":2.233293056488037,"totalChipsRatio_3":-0.7617103457450867,"totalChipsRatio_4":-3.6902315616607666,"percentBets_1":6.507664203643799,"totalChipsRatio_1":1.234913945198059,"percentRaise_1":7.649882793426514,"percentCheck_1":6.245326995849609,"percentFold_1":-17.574073791503906}},"11":{"bias":4.476316928863525,"weights":{"Win":19.229097366333008,"Lose":13.726724624633789,"myCurrBet":-11.261513710021973,"step":2.6316661834716797,"position":-6.514257907867432,"bluff":6.860949993133545,"maxHandsRatio":-2.542851448059082,"handValue":4.423816680908203,"percentRaise_2":4.494568824768066,"percentCheck_2":-6.172598838806152,"percentFold_2":-15.7637300491333,"percentBets_2":-8.71351146697998,"percentRaise_3":-3.7445859909057617,"percentCheck_3":-7.429251670837402,"percentFold_3":-6.452105522155762,"percentBets_3":1.8476694822311401,"percentRaise_4":-10.577814102172852,"percentCheck_4":-2.117537498474121,"percentFold_4":4.170097351074219,"percentBets_4":-0.7903444766998291,"myChipsRatio":3.9397265911102295,"totalChipsRatio_2":-0.356265127658844,"totalChipsRatio_3":4.042455196380615,"totalChipsRatio_4":-2.743349313735962,"percentBets_1":-9.50151252746582,"totalChipsRatio_1":0.27250850200653076,"percentRaise_1":-0.9696647524833679,"percentCheck_1":0.6183472275733948,"percentFold_1":-15.177229881286621}},"12":{"bias":3.8602633476257324,"weights":{"Win":3.8742947578430176,"Lose":4.88344144821167,"myCurrBet":2.0886683464050293,"step":17.655466079711914,"position":-1.6456154584884644,"bluff":6.979907035827637,"maxHandsRatio":4.654296875,"handValue":-4.754804611206055,"percentRaise_2":9.924909591674805,"percentCheck_2":8.063512802124023,"percentFold_2":2.133610963821411,"percentBets_2":2.2367796897888184,"percentRaise_3":-6.110693454742432,"percentCheck_3":7.60297966003418,"percentFold_3":0.5609121322631836,"percentBets_3":-1.4309771060943604,"percentRaise_4":1.9298627376556396,"percentCheck_4":3.1484947204589844,"percentFold_4":-4.5978007316589355,"percentBets_4":-2.5254950523376465,"myChipsRatio":2.096522569656372,"totalChipsRatio_2":-4.454805850982666,"totalChipsRatio_3":-3.0400354862213135,"totalChipsRatio_4":8.1766357421875,"percentBets_1":13.320372581481934,"totalChipsRatio_1":1.0886800289154053,"percentRaise_1":-7.432292938232422,"percentCheck_1":-7.172268390655518,"percentFold_1":11.23400592803955}},"13":{"bias":-1.508134365081787,"weights":{"Win":-16.151451110839844,"Lose":-7.48362922668457,"myCurrBet":3.4539527893066406,"step":0.18703441321849823,"position":-7.376038551330566,"bluff":-1.167484164237976,"maxHandsRatio":4.1971435546875,"handValue":7.270749092102051,"percentRaise_2":3.592717409133911,"percentCheck_2":-4.062880039215088,"percentFold_2":11.278708457946777,"percentBets_2":3.6189804077148438,"percentRaise_3":4.720583438873291,"percentCheck_3":-0.8767867684364319,"percentFold_3":6.920658588409424,"percentBets_3":-7.261717796325684,"percentRaise_4":-2.910773754119873,"percentCheck_4":-5.086465835571289,"percentFold_4":-5.301873683929443,"percentBets_4":1.0518814325332642,"myChipsRatio":5.492009162902832,"totalChipsRatio_2":8.578231811523438,"totalChipsRatio_3":-4.9235005378723145,"totalChipsRatio_4":-6.484718322753906,"percentBets_1":7.199092864990234,"totalChipsRatio_1":-3.757857322692871,"percentRaise_1":1.372884750366211,"percentCheck_1":0.8416354656219482,"percentFold_1":-2.3255629539489746}}},{"0":{"bias":-7.991013050079346,"weights":{"0":0.44183847308158875,"1":-6.904603004455566,"2":7.401713848114014,"3":0.7989286780357361,"4":-13.840710639953613,"5":11.846078872680664,"6":-3.81374454498291,"7":12.368751525878906,"8":-2.8563058376312256,"9":2.409803867340088,"10":0.933338463306427,"11":5.583434104919434,"12":-6.316915035247803,"13":5.813518524169922}},"1":{"bias":-0.6425201296806335,"weights":{"0":-9.549370765686035,"1":4.018294334411621,"2":12.08426570892334,"3":-1.1590805053710938,"4":6.350455284118652,"5":3.2581043243408203,"6":0.38155847787857056,"7":4.8141045570373535,"8":3.8383865356445312,"9":-5.577507972717285,"10":-12.510051727294922,"11":0.8157638907432556,"12":-2.7797231674194336,"13":3.0422377586364746}},"2":{"bias":-0.8865775465965271,"weights":{"0":5.0538225173950195,"1":1.9412051439285278,"2":2.1979405879974365,"3":-13.716581344604492,"4":-0.38856905698776245,"5":-2.981412649154663,"6":3.629152536392212,"7":-1.3236709833145142,"8":4.761019229888916,"9":-10.096257209777832,"10":-13.902706146240234,"11":1.6060353517532349,"12":-1.362168550491333,"13":0.4471452236175537}},"3":{"bias":2.4713399410247803,"weights":{"0":10.5889253616333,"1":11.297346115112305,"2":-11.369253158569336,"3":-17.20693016052246,"4":4.411496162414551,"5":-2.1865897178649902,"6":-21.57719612121582,"7":7.857602119445801,"8":9.324435234069824,"9":-15.595338821411133,"10":15.505414009094238,"11":14.695281982421875,"12":15.948248863220215,"13":-15.403641700744629}},"4":{"bias":-3.9092698097229004,"weights":{"0":-3.185807704925537,"1":-0.348491370677948,"2":-2.3008813858032227,"3":2.962153673171997,"4":4.087374210357666,"5":7.885260581970215,"6":0.8637580275535583,"7":16.464214324951172,"8":-0.3492491543292999,"9":2.1175119876861572,"10":0.7183851599693298,"11":-0.9674530029296875,"12":-11.249492645263672,"13":-2.10701847076416}},"5":{"bias":-6.854183197021484,"weights":{"0":-2.6801822185516357,"1":4.191773891448975,"2":-0.9274958968162537,"3":5.170419216156006,"4":0.6820791363716125,"5":-2.3539650440216064,"6":-7.222875595092773,"7":-1.5281895399093628,"8":5.086819171905518,"9":-1.4407074451446533,"10":-1.8852821588516235,"11":4.957653522491455,"12":-4.107993125915527,"13":2.165274143218994}},"6":{"bias":0.27911701798439026,"weights":{"0":-3.2365798950195312,"1":5.394193172454834,"2":3.538393259048462,"3":-3.5073142051696777,"4":-1.669594168663025,"5":1.8053531646728516,"6":-4.696140289306641,"7":0.12513943016529083,"8":-7.690089702606201,"9":-7.271958351135254,"10":0.03640562668442726,"11":5.94807243347168,"12":-4.0450944900512695,"13":-2.5387868881225586}}},{"0":{"bias":-2.3418326377868652,"weights":{"0":-8.020487785339355,"1":-28.55483055114746,"2":5.508623123168945,"3":3.313727617263794,"4":-2.1207706928253174,"5":-0.13877396285533905,"6":-0.21493126451969147}},"1":{"bias":-0.3516785502433777,"weights":{"0":7.357255935668945,"1":-17.959102630615234,"2":-0.9977301955223083,"3":-2.235414981842041,"4":-2.703615665435791,"5":-1.6734598875045776,"6":-4.111774921417236}},"2":{"bias":14.150452613830566,"weights":{"0":-11.481230735778809,"1":-2.101085662841797,"2":1.4544018507003784,"3":-11.412246704101562,"4":-13.216469764709473,"5":-2.0985472202301025,"6":-1.7760366201400757}}},{"chips":{"bias":3.5380430221557617,"weights":{"0":-11.359007835388184,"1":-3.2661659717559814,"2":-4.165085792541504}}}],"outputLookup":true,"inputLookup":true,"activation":"sigmoid","trainOpts":{"iterations":2000,"errorThresh":0.005,"log":true,"logPeriod":10,"learningRate":0.3,"momentum":0.1,"callbackPeriod":10}}