{"sizes":[16,8,1],"layers":[{"winLose":{},"step":{},"p4_pf_1":{},"p3_pf_1":{},"handValue":{},"p1_pf_1":{},"p2_pf_1":{},"p3_pf_2":{},"p1_t_1":{},"p2_r_1":{},"p4_f_1":{},"p3_r_1":{},"p4_r_1":{},"p2_t_1":{},"p3_t_1":{},"p1_pf_2":{}},{"0":{"bias":2.6363327503204346,"weights":{"winLose":0.5106498599052429,"step":-4.488840579986572,"p4_pf_1":3.1643402576446533,"p3_pf_1":1.6223934888839722,"handValue":-26.453723907470703,"p1_pf_1":-5.512582302093506,"p2_pf_1":-2.9207985401153564,"p3_pf_2":-3.9966540336608887,"p1_t_1":-2.8044188022613525,"p2_r_1":6.400904178619385,"p4_f_1":-5.327288627624512,"p3_r_1":-3.3509442806243896,"p4_r_1":3.4793684482574463,"p2_t_1":-6.521209239959717,"p3_t_1":12.079245567321777,"p1_pf_2":-0.15553219616413116}},"1":{"bias":-0.032409392297267914,"weights":{"winLose":-0.8585232496261597,"step":15.011200904846191,"p4_pf_1":0.169220969080925,"p3_pf_1":0.24738532304763794,"handValue":-41.32712936401367,"p1_pf_1":-6.0806403160095215,"p2_pf_1":-4.157825946807861,"p3_pf_2":-6.973598480224609,"p1_t_1":-2.765399694442749,"p2_r_1":-1.795910358428955,"p4_f_1":-5.478137016296387,"p3_r_1":-7.999972343444824,"p4_r_1":-6.474493503570557,"p2_t_1":-0.8924999833106995,"p3_t_1":3.478001594543457,"p1_pf_2":0.06201498582959175}},"2":{"bias":-15.103647232055664,"weights":{"winLose":-12.669459342956543,"step":-14.279354095458984,"p4_pf_1":-13.985706329345703,"p3_pf_1":-6.8836669921875,"handValue":53.23828125,"p1_pf_1":12.361645698547363,"p2_pf_1":-6.218499183654785,"p3_pf_2":-0.12608225643634796,"p1_t_1":6.225800037384033,"p2_r_1":-14.435742378234863,"p4_f_1":24.095203399658203,"p3_r_1":39.234893798828125,"p4_r_1":16.05221939086914,"p2_t_1":12.151474952697754,"p3_t_1":28.76237678527832,"p1_pf_2":0.15878614783287048}},"3":{"bias":-1.8497264385223389,"weights":{"winLose":-0.2002640962600708,"step":3.329716920852661,"p4_pf_1":-1.6667561531066895,"p3_pf_1":-0.8416614532470703,"handValue":-19.672128677368164,"p1_pf_1":-2.505295753479004,"p2_pf_1":-2.5287702083587646,"p3_pf_2":3.1547181606292725,"p1_t_1":-1.218332290649414,"p2_r_1":7.095333576202393,"p4_f_1":-5.756374835968018,"p3_r_1":2.255687952041626,"p4_r_1":4.400600433349609,"p2_t_1":-8.197794914245605,"p3_t_1":-0.02709275111556053,"p1_pf_2":0.0936557725071907}},"4":{"bias":4.105290412902832,"weights":{"winLose":8.134061813354492,"step":-4.106293201446533,"p4_pf_1":4.630072593688965,"p3_pf_1":2.1610107421875,"handValue":-32.64154052734375,"p1_pf_1":-1.2744300365447998,"p2_pf_1":1.1454271078109741,"p3_pf_2":-17.29220199584961,"p1_t_1":-0.8066484928131104,"p2_r_1":10.243120193481445,"p4_f_1":-28.451988220214844,"p3_r_1":-0.6210150122642517,"p4_r_1":26.099348068237305,"p2_t_1":-6.431949138641357,"p3_t_1":24.416372299194336,"p1_pf_2":0.13342201709747314}},"5":{"bias":-9.63150405883789,"weights":{"winLose":-3.5761098861694336,"step":-8.921065330505371,"p4_pf_1":-8.394020080566406,"p3_pf_1":-4.074679374694824,"handValue":-10.812830924987793,"p1_pf_1":10.214385986328125,"p2_pf_1":4.626712322235107,"p3_pf_2":2.5568134784698486,"p1_t_1":5.043597221374512,"p2_r_1":-10.717259407043457,"p4_f_1":19.548669815063477,"p3_r_1":20.441835403442383,"p4_r_1":32.19348907470703,"p2_t_1":15.18756103515625,"p3_t_1":13.903302192687988,"p1_pf_2":-0.04228944331407547}},"6":{"bias":-0.5937330722808838,"weights":{"winLose":-1.5014872550964355,"step":1.9738495349884033,"p4_pf_1":-0.8372249603271484,"p3_pf_1":-0.38572782278060913,"handValue":0.4098253846168518,"p1_pf_1":-0.26872357726097107,"p2_pf_1":-1.4293479919433594,"p3_pf_2":-4.835270404815674,"p1_t_1":-0.4442253112792969,"p2_r_1":8.001164436340332,"p4_f_1":-8.419464111328125,"p3_r_1":10.652497291564941,"p4_r_1":9.085160255432129,"p2_t_1":-9.654912948608398,"p3_t_1":-0.0820046216249466,"p1_pf_2":0.0787290707230568}},"7":{"bias":-7.166914463043213,"weights":{"winLose":-6.324566841125488,"step":-5.477836608886719,"p4_pf_1":-12.274889945983887,"p3_pf_1":-6.162204265594482,"handValue":31.43108367919922,"p1_pf_1":4.61807107925415,"p2_pf_1":-7.7660746574401855,"p3_pf_2":-8.16005802154541,"p1_t_1":2.309035539627075,"p2_r_1":-23.741737365722656,"p4_f_1":25.601261138916016,"p3_r_1":-12.872840881347656,"p4_r_1":-18.628700256347656,"p2_t_1":18.499357223510742,"p3_t_1":-1.8766945600509644,"p1_pf_2":-0.03957579284906387}}},{"chips":{"bias":-0.859757661819458,"weights":{"0":-0.47268742322921753,"1":1.3321689367294312,"2":-0.529533326625824,"3":1.8869740962982178,"4":-0.8626344799995422,"5":-17.850717544555664,"6":1.1067696809768677,"7":0.9635398387908936}}}],"outputLookup":true,"inputLookup":true,"activation":"sigmoid","trainOpts":{"iterations":200000,"errorThresh":0.005,"log":true,"logPeriod":10,"learningRate":0.3,"momentum":0.1,"callbackPeriod":10}}